<?xml version="1.0" encoding="UTF-8"?>
<BIF VERSION="0.3"  xmlns="http://www.cs.ubc.ca/labs/lci/fopi/ve/XMLBIFv0_3"
	xmlns:xsi="http://www.w3.org/2001/XMLSchema-instance"
	xsi:schemaLocation="http://www.cs.ubc.ca/labs/lci/fopi/ve/XMLBIFv0_3 http://www.cs.ubc.ca/labs/lci/fopi/ve/XMLBIFv0_3/XMLBIFv0_3.xsd">
<NETWORK>
<NAME>Untitled</NAME>
<PROPERTY>detailed = </PROPERTY>
<PROPERTY>short = </PROPERTY>

<VARIABLE TYPE="nature">
	<NAME>Email Received</NAME>
	<OUTCOME>T</OUTCOME>
	<OUTCOME>F</OUTCOME>
	<PROPERTY>position = (7370.40185546875, 5046.869140625)</PROPERTY>
</VARIABLE>

<VARIABLE TYPE="nature">
	<NAME>Business Email</NAME>
	<OUTCOME>T</OUTCOME>
	<OUTCOME>F</OUTCOME>
	<PROPERTY>position = (6988.9560546875, 5064.62158203125)</PROPERTY>
</VARIABLE>

<VARIABLE TYPE="nature">
	<NAME>Email Misinformation Error</NAME>
	<OUTCOME>T</OUTCOME>
	<OUTCOME>F</OUTCOME>
	<PROPERTY>position = (7372.1103515625, 5145.1044921875)</PROPERTY>
</VARIABLE>

<VARIABLE TYPE="nature">
	<NAME>Actual Email Risk Level</NAME>
	<OUTCOME>High</OUTCOME>
	<OUTCOME>Low</OUTCOME>
	<PROPERTY>position = (7180.4560546875, 5139.50927734375)</PROPERTY>
</VARIABLE>

<VARIABLE TYPE="nature">
	<NAME>Maintenance Planned</NAME>
	<OUTCOME>T</OUTCOME>
	<OUTCOME>F</OUTCOME>
	<PROPERTY>position = (7488.2607421875, 5064.30322265625)</PROPERTY>
</VARIABLE>

<VARIABLE TYPE="nature">
	<NAME>Firewall Down</NAME>
	<OUTCOME>T</OUTCOME>
	<OUTCOME>F</OUTCOME>
	<PROPERTY>position = (7489.51904296875, 5110.6640625)</PROPERTY>
</VARIABLE>

<VARIABLE TYPE="nature">
	<NAME>Maintenance Information Out Of Date</NAME>
	<OUTCOME>T</OUTCOME>
	<OUTCOME>F</OUTCOME>
	<PROPERTY>position = (7616.6962890625, 5062.98876953125)</PROPERTY>
</VARIABLE>

<VARIABLE TYPE="nature">
	<NAME>Detected Maintenance Risk Level</NAME>
	<OUTCOME>High</OUTCOME>
	<OUTCOME>Low</OUTCOME>
	<PROPERTY>position = (7559.529296875, 5157.5302734375)</PROPERTY>
</VARIABLE>

<VARIABLE TYPE="nature">
	<NAME>Out Of Date Vulnerability</NAME>
	<OUTCOME>T</OUTCOME>
	<OUTCOME>F</OUTCOME>
	<PROPERTY>position = (7601.91162109375, 5110.86376953125)</PROPERTY>
</VARIABLE>

<VARIABLE TYPE="nature">
	<NAME>Holiday/Political Day</NAME>
	<OUTCOME>T</OUTCOME>
	<OUTCOME>F</OUTCOME>
	<PROPERTY>position = (7750.54443359375, 5111.0107421875)</PROPERTY>
</VARIABLE>

<VARIABLE TYPE="nature">
	<NAME>Day Risk Level</NAME>
	<OUTCOME>High</OUTCOME>
	<OUTCOME>Low</OUTCOME>
	<PROPERTY>position = (7752.8662109375, 5202.021484375)</PROPERTY>
</VARIABLE>

<VARIABLE TYPE="nature">
	<NAME>Overall Risk Detected</NAME>
	<OUTCOME>High</OUTCOME>
	<OUTCOME>Low</OUTCOME>
	<PROPERTY>position = (7560.015625, 5205.11376953125)</PROPERTY>
</VARIABLE>

<VARIABLE TYPE="nature">
	<NAME>Alert Triggered</NAME>
	<OUTCOME>T</OUTCOME>
	<OUTCOME>F</OUTCOME>
	<PROPERTY>position = (7560.72998046875, 5252.86328125)</PROPERTY>
</VARIABLE>

<VARIABLE TYPE="nature">
	<NAME>Detected Email Risk Level</NAME>
	<OUTCOME>High</OUTCOME>
	<OUTCOME>Low</OUTCOME>
	<PROPERTY>position = (7372.76904296875, 5206.3583984375)</PROPERTY>
</VARIABLE>

<VARIABLE TYPE="nature">
	<NAME>Investigation</NAME>
	<OUTCOME>T</OUTCOME>
	<OUTCOME>F</OUTCOME>
	<PROPERTY>position = (7560.37744140625, 5324.73681640625)</PROPERTY>
</VARIABLE>

<VARIABLE TYPE="nature">
	<NAME>Anomalous Ruling</NAME>
	<OUTCOME>T</OUTCOME>
	<OUTCOME>F</OUTCOME>
	<PROPERTY>position = (7553.32177734375, 5387.9951171875)</PROPERTY>
</VARIABLE>

<VARIABLE TYPE="nature">
	<NAME>Normal Ruling</NAME>
	<OUTCOME>T</OUTCOME>
	<OUTCOME>F</OUTCOME>
	<PROPERTY>position = (7692.99462890625, 5405.509765625)</PROPERTY>
</VARIABLE>

<VARIABLE TYPE="nature">
	<NAME>Logging Error</NAME>
	<OUTCOME>T</OUTCOME>
	<OUTCOME>F</OUTCOME>
	<PROPERTY>position = (7404.548828125, 5408.13671875)</PROPERTY>
</VARIABLE>

<VARIABLE TYPE="nature">
	<NAME>Log Anomalous</NAME>
	<OUTCOME>T</OUTCOME>
	<OUTCOME>F</OUTCOME>
	<PROPERTY>position = (7560.31103515625, 5404.9287109375)</PROPERTY>
</VARIABLE>

<VARIABLE TYPE="nature">
	<NAME>Log Normal</NAME>
	<OUTCOME>T</OUTCOME>
	<OUTCOME>F</OUTCOME>
	<PROPERTY>position = (7666.0458984375, 5407.13134765625)</PROPERTY>
</VARIABLE>

<VARIABLE TYPE="nature">
	<NAME>Personal Email</NAME>
	<OUTCOME>T</OUTCOME>
	<OUTCOME>F</OUTCOME>
	<PROPERTY>position = (7313.63037109375, 5089.80810546875)</PROPERTY>
</VARIABLE>

<VARIABLE TYPE="nature">
	<NAME>Flagged Forbidden Domain</NAME>
	<OUTCOME>T</OUTCOME>
	<OUTCOME>F</OUTCOME>
	<PROPERTY>position = (6994.0, 5136.0)</PROPERTY>
</VARIABLE>

<VARIABLE TYPE="nature">
	<NAME>Bureaucratic Failure</NAME>
	<OUTCOME>T</OUTCOME>
	<OUTCOME>F</OUTCOME>
	<PROPERTY>position = (7411.0, 5275.0)</PROPERTY>
</VARIABLE>

<DEFINITION>
	<FOR>Email Received</FOR>
	<TABLE>0.99 0.01</TABLE>
</DEFINITION>

<DEFINITION>
	<FOR>Business Email</FOR>
	<GIVEN>Email Received</GIVEN>
	<TABLE>0.9 0.1 0.0 1.0</TABLE>
</DEFINITION>

<DEFINITION>
	<FOR>Email Misinformation Error</FOR>
	<GIVEN>Email Received</GIVEN>
	<TABLE>0.03 0.97 0.0 1.0</TABLE>
</DEFINITION>

<DEFINITION>
	<FOR>Actual Email Risk Level</FOR>
	<GIVEN>Personal Email</GIVEN>
	<GIVEN>Flagged Forbidden Domain</GIVEN>
	<TABLE>1.0 0.0 1.0 0.0 1.0 0.0 0.0 1.0</TABLE>
</DEFINITION>

<DEFINITION>
	<FOR>Maintenance Planned</FOR>
	<TABLE>0.2 0.8</TABLE>
</DEFINITION>

<DEFINITION>
	<FOR>Firewall Down</FOR>
	<GIVEN>Maintenance Planned</GIVEN>
	<TABLE>0.05 0.95 0.0 1.0</TABLE>
</DEFINITION>

<DEFINITION>
	<FOR>Maintenance Information Out Of Date</FOR>
	<TABLE>0.02 0.98</TABLE>
</DEFINITION>

<DEFINITION>
	<FOR>Detected Maintenance Risk Level</FOR>
	<GIVEN>Firewall Down</GIVEN>
	<GIVEN>Out Of Date Vulnerability</GIVEN>
	<TABLE>1.0 0.0 1.0 0.0 1.0 0.0 0.0 1.0</TABLE>
</DEFINITION>

<DEFINITION>
	<FOR>Out Of Date Vulnerability</FOR>
	<GIVEN>Maintenance Planned</GIVEN>
	<GIVEN>Maintenance Information Out Of Date</GIVEN>
	<TABLE>1.0 0.0 0.0 1.0 0.0 1.0 0.0 1.0</TABLE>
</DEFINITION>

<DEFINITION>
	<FOR>Holiday/Political Day</FOR>
	<TABLE>0.27778 0.72222</TABLE>
</DEFINITION>

<DEFINITION>
	<FOR>Day Risk Level</FOR>
	<GIVEN>Holiday/Political Day</GIVEN>
	<TABLE>1.0 0.0 0.0 1.0</TABLE>
</DEFINITION>

<DEFINITION>
	<FOR>Overall Risk Detected</FOR>
	<GIVEN>Detected Maintenance Risk Level</GIVEN>
	<GIVEN>Day Risk Level</GIVEN>
	<GIVEN>Detected Email Risk Level</GIVEN>
	<TABLE>1.0 0.0 1.0 0.0 1.0 0.0 1.0 0.0 1.0 0.0 1.0 0.0 1.0 0.0 0.0 1.0</TABLE>
</DEFINITION>

<DEFINITION>
	<FOR>Alert Triggered</FOR>
	<GIVEN>Overall Risk Detected</GIVEN>
	<TABLE>0.8 0.2 0.0 1.0</TABLE>
</DEFINITION>

<DEFINITION>
	<FOR>Detected Email Risk Level</FOR>
	<GIVEN>Email Misinformation Error</GIVEN>
	<GIVEN>Actual Email Risk Level</GIVEN>
	<TABLE>0.0 1.0 1.0 0.0 1.0 0.0 0.0 1.0</TABLE>
</DEFINITION>

<DEFINITION>
	<FOR>Investigation</FOR>
	<GIVEN>Alert Triggered</GIVEN>
	<GIVEN>Bureaucratic Failure</GIVEN>
	<TABLE>1.0 0.0 1.0 0.0 0.0 1.0 0.0 1.0</TABLE>
</DEFINITION>

<DEFINITION>
	<FOR>Anomalous Ruling</FOR>
	<GIVEN>Investigation</GIVEN>
	<TABLE>0.1 0.9 0.0 1.0</TABLE>
</DEFINITION>

<DEFINITION>
	<FOR>Normal Ruling</FOR>
	<GIVEN>Investigation</GIVEN>
	<GIVEN>Anomalous Ruling</GIVEN>
	<TABLE>0.0 1.0 1.0 0.0 0.0 1.0 0.0 1.0</TABLE>
</DEFINITION>

<DEFINITION>
	<FOR>Logging Error</FOR>
	<GIVEN>Investigation</GIVEN>
	<TABLE>0.3 0.7 0.0 1.0</TABLE>
</DEFINITION>

<DEFINITION>
	<FOR>Log Anomalous</FOR>
	<GIVEN>Anomalous Ruling</GIVEN>
	<GIVEN>Logging Error</GIVEN>
	<TABLE>0.0 1.0 1.0 0.0 1.0 0.0 0.0 1.0</TABLE>
</DEFINITION>

<DEFINITION>
	<FOR>Log Normal</FOR>
	<GIVEN>Normal Ruling</GIVEN>
	<GIVEN>Logging Error</GIVEN>
	<TABLE>0.0 1.0 1.0 0.0 1.0 0.0 0.0 1.0</TABLE>
</DEFINITION>

<DEFINITION>
	<FOR>Personal Email</FOR>
	<GIVEN>Email Received</GIVEN>
	<GIVEN>Business Email</GIVEN>
	<TABLE>0.0 1.0 1.0 0.0 0.0 1.0 0.0 1.0</TABLE>
</DEFINITION>

<DEFINITION>
	<FOR>Flagged Forbidden Domain</FOR>
	<GIVEN>Business Email</GIVEN>
	<TABLE>0.05 0.95 0.0 1.0</TABLE>
</DEFINITION>

<DEFINITION>
	<FOR>Bureaucratic Failure</FOR>
	<GIVEN>Alert Triggered</GIVEN>
	<TABLE>0.5 0.5 0.5 0.5</TABLE>
</DEFINITION>
</NETWORK>
</BIF>
