<?xml version="1.0" encoding="UTF-8"?>
<BIF VERSION="0.3"  xmlns="http://www.cs.ubc.ca/labs/lci/fopi/ve/XMLBIFv0_3"
	xmlns:xsi="http://www.w3.org/2001/XMLSchema-instance"
	xsi:schemaLocation="http://www.cs.ubc.ca/labs/lci/fopi/ve/XMLBIFv0_3 http://www.cs.ubc.ca/labs/lci/fopi/ve/XMLBIFv0_3/XMLBIFv0_3.xsd">
<NETWORK>
<NAME>Untitled</NAME>
<PROPERTY>detailed = </PROPERTY>
<PROPERTY>short = </PROPERTY>

<VARIABLE TYPE="nature">
	<NAME>Email Received</NAME>
	<OUTCOME>T</OUTCOME>
	<OUTCOME>F</OUTCOME>
	<PROPERTY>position = (7295.0, 5109.0)</PROPERTY>
</VARIABLE>

<VARIABLE TYPE="nature">
	<NAME>Business Email</NAME>
	<OUTCOME>T</OUTCOME>
	<OUTCOME>F</OUTCOME>
	<PROPERTY>position = (7119.0, 5109.0)</PROPERTY>
</VARIABLE>

<VARIABLE TYPE="nature">
	<NAME>Email Misinformation Error</NAME>
	<OUTCOME>T</OUTCOME>
	<OUTCOME>F</OUTCOME>
	<PROPERTY>position = (7362.0, 5251.0)</PROPERTY>
</VARIABLE>

<VARIABLE TYPE="nature">
	<NAME>Actual Email Risk Level</NAME>
	<OUTCOME>High</OUTCOME>
	<OUTCOME>Low</OUTCOME>
	<PROPERTY>position = (7171.0, 5251.0)</PROPERTY>
</VARIABLE>

<VARIABLE TYPE="nature">
	<NAME>Maintenance Planned</NAME>
	<OUTCOME>T</OUTCOME>
	<OUTCOME>F</OUTCOME>
	<PROPERTY>position = (7480.98828125, 5112.591796875)</PROPERTY>
</VARIABLE>

<VARIABLE TYPE="nature">
	<NAME>Firewall Down</NAME>
	<OUTCOME>T</OUTCOME>
	<OUTCOME>F</OUTCOME>
	<PROPERTY>position = (7480.98828125, 5187.91748046875)</PROPERTY>
</VARIABLE>

<VARIABLE TYPE="nature">
	<NAME>Maintenance Information Out Of Date</NAME>
	<OUTCOME>T</OUTCOME>
	<OUTCOME>F</OUTCOME>
	<PROPERTY>position = (7675.13818359375, 5108.416015625)</PROPERTY>
</VARIABLE>

<VARIABLE TYPE="nature">
	<NAME>Detected Maintenance Risk Level</NAME>
	<OUTCOME>High</OUTCOME>
	<OUTCOME>Low</OUTCOME>
	<PROPERTY>position = (7583.47509765625, 5258.8505859375)</PROPERTY>
</VARIABLE>

<VARIABLE TYPE="nature">
	<NAME>Out Of Date Vulnerability</NAME>
	<OUTCOME>T</OUTCOME>
	<OUTCOME>F</OUTCOME>
	<PROPERTY>position = (7676.13818359375, 5190.55126953125)</PROPERTY>
</VARIABLE>

<VARIABLE TYPE="nature">
	<NAME>Holiday/Political Day</NAME>
	<OUTCOME>T</OUTCOME>
	<OUTCOME>F</OUTCOME>
	<PROPERTY>position = (7844.50439453125, 5260.97021484375)</PROPERTY>
</VARIABLE>

<VARIABLE TYPE="nature">
	<NAME>Day Risk Level</NAME>
	<OUTCOME>High</OUTCOME>
	<OUTCOME>Low</OUTCOME>
	<PROPERTY>position = (7847.8837890625, 5358.21484375)</PROPERTY>
</VARIABLE>

<VARIABLE TYPE="nature">
	<NAME>Overall Risk Detected</NAME>
	<OUTCOME>High</OUTCOME>
	<OUTCOME>Low</OUTCOME>
	<PROPERTY>position = (7569.02880859375, 5362.04052734375)</PROPERTY>
</VARIABLE>

<VARIABLE TYPE="nature">
	<NAME>Alert Triggered</NAME>
	<OUTCOME>T</OUTCOME>
	<OUTCOME>F</OUTCOME>
	<PROPERTY>position = (7569.2998046875, 5451.7705078125)</PROPERTY>
</VARIABLE>

<VARIABLE TYPE="nature">
	<NAME>Detected Email Risk Level</NAME>
	<OUTCOME>High</OUTCOME>
	<OUTCOME>Low</OUTCOME>
	<PROPERTY>position = (7272.0, 5362.0)</PROPERTY>
</VARIABLE>

<VARIABLE TYPE="nature">
	<NAME>Investigation</NAME>
	<OUTCOME>T</OUTCOME>
	<OUTCOME>F</OUTCOME>
	<PROPERTY>position = (7571.0, 5540.0)</PROPERTY>
</VARIABLE>

<VARIABLE TYPE="nature">
	<NAME>Anomalous Ruling</NAME>
	<OUTCOME>T</OUTCOME>
	<OUTCOME>F</OUTCOME>
	<PROPERTY>position = (7572.0, 5611.0)</PROPERTY>
</VARIABLE>

<VARIABLE TYPE="nature">
	<NAME>Normal Ruling</NAME>
	<OUTCOME>T</OUTCOME>
	<OUTCOME>F</OUTCOME>
	<PROPERTY>position = (7727.0, 5609.0)</PROPERTY>
</VARIABLE>

<VARIABLE TYPE="nature">
	<NAME>Logging Error</NAME>
	<OUTCOME>T</OUTCOME>
	<OUTCOME>F</OUTCOME>
	<PROPERTY>position = (7428.0, 5610.0)</PROPERTY>
</VARIABLE>

<VARIABLE TYPE="nature">
	<NAME>Log Anomalous</NAME>
	<OUTCOME>T</OUTCOME>
	<OUTCOME>F</OUTCOME>
	<PROPERTY>position = (7520.0, 5695.0)</PROPERTY>
</VARIABLE>

<VARIABLE TYPE="nature">
	<NAME>Log Normal</NAME>
	<OUTCOME>T</OUTCOME>
	<OUTCOME>F</OUTCOME>
	<PROPERTY>position = (7692.0, 5698.0)</PROPERTY>
</VARIABLE>

<VARIABLE TYPE="nature">
	<NAME>Beauracratic Failure</NAME>
	<OUTCOME>T</OUTCOME>
	<OUTCOME>F</OUTCOME>
	<PROPERTY>position = (7699.0, 5492.0)</PROPERTY>
</VARIABLE>

<VARIABLE TYPE="nature">
	<NAME>Permitted Personal Domain</NAME>
	<OUTCOME>T</OUTCOME>
	<OUTCOME>F</OUTCOME>
	<PROPERTY>position = (7008.0, 5192.0)</PROPERTY>
</VARIABLE>

<DEFINITION>
	<FOR>Email Received</FOR>
	<TABLE>0.99 0.01</TABLE>
</DEFINITION>

<DEFINITION>
	<FOR>Business Email</FOR>
	<GIVEN>Email Received</GIVEN>
	<TABLE>0.9 0.1 0.0 1.0</TABLE>
</DEFINITION>

<DEFINITION>
	<FOR>Email Misinformation Error</FOR>
	<GIVEN>Email Received</GIVEN>
	<TABLE>0.03 0.97 0.0 1.0</TABLE>
</DEFINITION>

<DEFINITION>
	<FOR>Actual Email Risk Level</FOR>
	<GIVEN>Email Received</GIVEN>
	<GIVEN>Business Email</GIVEN>
	<GIVEN>Permitted Personal Domain</GIVEN>
	<TABLE>0.0 1.0 0.0 1.0 0.0 1.0 1.0 0.0 0.0 1.0 0.0 1.0 0.0 1.0 0.0 1.0</TABLE>
</DEFINITION>

<DEFINITION>
	<FOR>Maintenance Planned</FOR>
	<TABLE>0.2 0.8</TABLE>
</DEFINITION>

<DEFINITION>
	<FOR>Firewall Down</FOR>
	<GIVEN>Maintenance Planned</GIVEN>
	<TABLE>0.05 0.95 0.0 1.0</TABLE>
</DEFINITION>

<DEFINITION>
	<FOR>Maintenance Information Out Of Date</FOR>
	<TABLE>0.02 0.98</TABLE>
</DEFINITION>

<DEFINITION>
	<FOR>Detected Maintenance Risk Level</FOR>
	<GIVEN>Firewall Down</GIVEN>
	<GIVEN>Out Of Date Vulnerability</GIVEN>
	<TABLE>1.0 0.0 1.0 0.0 1.0 0.0 0.0 1.0</TABLE>
</DEFINITION>

<DEFINITION>
	<FOR>Out Of Date Vulnerability</FOR>
	<GIVEN>Maintenance Planned</GIVEN>
	<GIVEN>Maintenance Information Out Of Date</GIVEN>
	<TABLE>1.0 0.0 0.0 1.0 0.0 1.0 0.0 1.0</TABLE>
</DEFINITION>

<DEFINITION>
	<FOR>Holiday/Political Day</FOR>
	<TABLE>0.27778 0.72222</TABLE>
</DEFINITION>

<DEFINITION>
	<FOR>Day Risk Level</FOR>
	<GIVEN>Holiday/Political Day</GIVEN>
	<TABLE>1.0 0.0 0.0 1.0</TABLE>
</DEFINITION>

<DEFINITION>
	<FOR>Overall Risk Detected</FOR>
	<GIVEN>Detected Maintenance Risk Level</GIVEN>
	<GIVEN>Day Risk Level</GIVEN>
	<GIVEN>Detected Email Risk Level</GIVEN>
	<TABLE>1.0 0.0 1.0 0.0 1.0 0.0 1.0 0.0 1.0 0.0 1.0 0.0 1.0 0.0 0.0 1.0</TABLE>
</DEFINITION>

<DEFINITION>
	<FOR>Alert Triggered</FOR>
	<GIVEN>Overall Risk Detected</GIVEN>
	<TABLE>0.8 0.2 0.0 1.0</TABLE>
</DEFINITION>

<DEFINITION>
	<FOR>Detected Email Risk Level</FOR>
	<GIVEN>Email Misinformation Error</GIVEN>
	<GIVEN>Actual Email Risk Level</GIVEN>
	<TABLE>0.0 1.0 1.0 0.0 1.0 0.0 0.0 1.0</TABLE>
</DEFINITION>

<DEFINITION>
	<FOR>Investigation</FOR>
	<GIVEN>Alert Triggered</GIVEN>
	<GIVEN>Beauracratic Failure</GIVEN>
	<TABLE>1.0 0.0 1.0 0.0 0.0 1.0 0.0 1.0</TABLE>
</DEFINITION>

<DEFINITION>
	<FOR>Anomalous Ruling</FOR>
	<GIVEN>Investigation</GIVEN>
	<TABLE>0.1 0.9 0.0 1.0</TABLE>
</DEFINITION>

<DEFINITION>
	<FOR>Normal Ruling</FOR>
	<GIVEN>Investigation</GIVEN>
	<GIVEN>Anomalous Ruling</GIVEN>
	<TABLE>0.0 1.0 1.0 0.0 0.0 1.0 0.0 1.0</TABLE>
</DEFINITION>

<DEFINITION>
	<FOR>Logging Error</FOR>
	<GIVEN>Investigation</GIVEN>
	<TABLE>0.3 0.7 0.0 1.0</TABLE>
</DEFINITION>

<DEFINITION>
	<FOR>Log Anomalous</FOR>
	<GIVEN>Anomalous Ruling</GIVEN>
	<GIVEN>Logging Error</GIVEN>
	<TABLE>0.0 1.0 1.0 0.0 1.0 0.0 0.0 1.0</TABLE>
</DEFINITION>

<DEFINITION>
	<FOR>Log Normal</FOR>
	<GIVEN>Normal Ruling</GIVEN>
	<GIVEN>Logging Error</GIVEN>
	<TABLE>0.0 1.0 1.0 0.0 1.0 0.0 0.0 1.0</TABLE>
</DEFINITION>

<DEFINITION>
	<FOR>Beauracratic Failure</FOR>
	<GIVEN>Alert Triggered</GIVEN>
	<TABLE>0.1 0.9 0.0 1.0</TABLE>
</DEFINITION>

<DEFINITION>
	<FOR>Permitted Personal Domain</FOR>
	<GIVEN>Business Email</GIVEN>
	<TABLE>0.6 0.4 0.0 1.0</TABLE>
</DEFINITION>
</NETWORK>
</BIF>
